#Human Detection from video captured by camera

import numpy as np
import cv2
import imutils
from imutils.object_detection import non_max_suppression
from imutils import paths

hog = cv2.HOGDescriptor()
hog.setSVMDetector(cv2.HOGDescriptor_getDefaultPeopleDetector())


cap = cv2.VideoCapture(0)

while(True):
    #Capture frame by frame
    ret, frame = cap.read()

    #Operasi pada frame
    image = imutils.resize(frame, width=min(400, frame.shape[1]))
    
    (rects, weights) = hog.detectMultiScale(image, winStride=(4, 4), padding=(8, 8), scale=1.05)

    rects = np.array([[x, y, x + w, y + h] for (x, y, w, h) in rects])
    pick = non_max_suppression(rects, probs=None, overlapThresh=0.65)

    for (xA, yA, xB, yB) in pick:
        cv2.rectangle(image, (xA, yA), (xB, yB), (0, 255, 0), 1)
    

    #Menampilkan frame hasil operasi
    cv2.imshow('frame', image)
    if cv2.waitKey(1) & 0xFF == ord('q'):
        break

#Coding untuk menutuphasil capture setelah selesai
cap.release()
cv2.destroyAllWindows()
